10 50
an 0.36143 0.58615 -0.23718 0.079656 0.80192 0.49919 -0.33172 -0.19785 0.13876 0.16804 0.12557 -0.24494 -0.092315 0.35135 -0.024396 -0.31713 0.071206 0.37087 -0.82027 0.21193 -0.052153 0.29928 -0.49494 -0.12546 -0.012394 -2.2174 -0.082666 0.15184 0.050396 0.61229 3.7305 -0.93152 -0.28716 -0.48056 0.060682 0.058104 0.42065 -0.046598 0.083503 -0.23819 0.38828 0.36926 -0.44066 0.075673 -0.050556 -0.42269 -0.21577 0.39362 0.36523 0.36077
be 0.91102 -0.22872 0.2077 -0.20237 0.50697 -0.057893 -0.41729 -0.075341 -0.30454 -0.003286 0.44481 0.41818 -0.33409 0.032917 0.98872 0.91984 0.40521 0.01925 -0.1052 -0.79865 -0.36403 -0.087995 0.72182 0.11114 0.2153 -1.9411 -0.26376 0.4455 0.27586 -0.21104 4.0212 -0.061943 -0.32134 -0.81922 0.2108 -0.20414 0.72625 0.47517 -0.39853 -0.39168 -0.34581 0.025928 0.13072 0.73562 -0.15199 -0.18439 -0.67128 0.16692 -0.050063 0.19241
has 0.54822 0.038847 0.10127 0.31319 0.095487 0.41814 -0.79493 -0.58296 0.026643 0.12392 0.35194 -0.02163 -0.87018 -0.27178 0.65449 0.42934 0.097544 0.31779 -0.11921 -0.097106 -0.47585 0.24907 0.1223 -0.29079 -0.16866 -2.1072 0.022174 0.45277 -0.64485 0.13181 3.6594 -0.1714 0.23919 -0.42249 -0.088331 -0.32925 -0.12847 0.47055 -0.075953 -0.27747 -0.41905 0.60803 -0.24261 0.014885 -0.23204 0.020879 -0.82175 0.26588 -0.40267 -0.17111
are 0.96193 0.012516 0.21733 -0.06539 0.26843 0.33586 -0.45112 -0.60547 -0.46845 -0.18412 0.060949 0.19597 0.22645 0.032802 0.42488 0.49678 0.65346 -0.0274 0.17809 -1.1979 -0.40634 -0.22659 1.1495 0.59342 -0.23759 -0.93254 -0.52502 0.05125 0.032248 -0.72774 4.2466 0.60592 0.33397 -0.85754 0.4895 0.21744 -0.13451 0.0094912 -0.54173 0.18857 -0.64506 0.012695 0.73452 1.0032 0.41874 0.16596 -0.71085 0.14032 -0.38468 -0.38712
have 0.94911 -0.34968 0.48125 -0.19306 -0.0088384 0.28182 -0.9613 -0.13581 -0.43083 -0.092933 0.15689 0.059585 -0.49635 -0.17414 0.75661 0.4921 0.21773 -0.22778 -0.13686 -0.90589 -0.48781 0.19919 0.91447 -0.16203 -0.20645 -1.7312 -0.47622 -0.04854 -0.14027 -0.45828 4.0326 0.6052 0.10448 -0.7361 0.2485 -0.033461 -0.13395 0.052782 -0.27268 0.079825 -0.80127 0.30831 0.43567 0.88747 0.29816 -0.02465 -0.95075 0.36233 -0.72512 -0.6089
but 0.35934 -0.2657 -0.046477 -0.2496 0.54676 0.25924 -0.64458 0.1736 -0.53056 0.13942 0.062324 0.18459 -0.75495 -0.19569 0.70799 0.44759 0.27031 -0.32885 -0.38891 -0.61606 -0.484 0.41703 0.34794 -0.19706 0.40734 -2.1488 -0.24284 0.33809 0.43993 -0.21616 3.7635 0.19002 -0.12503 -0.38228 0.12944 -0.18272 0.076803 0.51579 0.0072516 -0.29192 -0.27523 0.40593 -0.040394 0.28353 -0.024724 0.10563 -0.32879 0.10673 -0.11503 0.074678
were 0.73363 -0.74815 0.45913 -0.56041 0.091855 0.33015 -1.2034 -0.15565 -1.1205 -0.5938 0.23299 -0.46278 -0.34786 -0.47901 0.57621 -0.16053 -0.26457 -0.13732 -0.91878 -0.65339 0.05884 0.61553 1.2607 -0.39821 -0.26056 -1.0127 -0.38517 -0.096929 -0.11701 -0.48536 3.6902 0.30744 0.50713 -0.6537 0.80491 0.23672 0.61769 0.030195 -0.57645 0.60467 -0.63949 -0.11373 0.84984 0.41409 0.083774 -0.28737 -1.4735 -0.20095 -0.17246 -1.0984
not 0.55025 -0.24942 -0.0009386 -0.264 0.5932 0.2795 -0.25666 0.093076 -0.36288 0.090776 0.28409 0.71337 -0.4751 -0.24413 0.88424 0.89109 0.43009 -0.2733 0.11276 -0.81665 -0.41272 0.17754 0.61942 0.10466 0.33327 -2.3125 -0.52371 -0.021898 0.53801 -0.50615 3.8683 0.16642 -0.71981 -0.74728 0.11631 -0.37585 0.5552 0.12675 -0.22642 -0.10175 -0.35455 0.12348 0.16532 0.7042 -0.080231 -0.068406 -0.67626 0.33763 0.050139 0.33465
this 0.53074 0.40117 -0.40785 0.15444 0.47782 0.20754 -0.26951 -0.34023 -0.10879 0.10563 -0.10289 0.10849 -0.49681 -0.25128 0.84025 0.38949 0.32284 -0.22797 -0.44342 -0.31649 -0.12406 -0.2817 0.19467 0.055513 0.56705 -1.7419 -0.91145 0.27036 0.41927 0.020279 4.0405 -0.24943 -0.20416 -0.62762 -0.054783 -0.26883 0.18444 0.18204 -0.23536 -0.16155 -0.27655 0.035506 -0.38211 -0.00075134 -0.24822 0.28164 0.12819 0.28762 0.1444 0.23611
who -0.19461 -0.051277 0.26445 -0.57399 1.0236 0.58923 -1.3399 0.31032 -0.89433 -0.13192 0.21305 0.29171 -0.66079 0.084125 0.76578 -0.42393 0.32445 0.13603 -0.29987 -0.046415 -0.74811 1.2134 0.24988 0.22846 0.23546 -2.6054 0.12491 -0.94028 -0.58308 -0.32325 2.8419 0.33474 -0.33902 -0.23434 0.37735 0.093804 -0.25969 0.68889 0.37689 -0.2186 -0.24244 1.0029 0.18607 0.27486 0.48089 -0.43533 -1.1012 -0.67103 -0.21652 -0.025891
